<?xml version="1.0"?>
<opencv_storage>
<cascade>
  <stageType>BOOST</stageType>
  <featureType>LBP</featureType>
  <height>24</height>
  <width>24</width>
  <stageParams>
    <boostType>GAB</boostType>
    <minHitRate>9.9900001287460327e-01</minHitRate>
    <maxFalseAlarm>5.0000000000000000e-01</maxFalseAlarm>
    <weightTrimRate>9.4999999999999996e-01</weightTrimRate>
    <maxDepth>1</maxDepth>
    <maxWeakCount>100</maxWeakCount></stageParams>
  <featureParams>
    <maxCatCount>256</maxCatCount>
    <featSize>1</featSize></featureParams>
  <stageNum>20</stageNum>
  <stages>
    <!-- stage 0 -->
    <_>
      <maxWeakCount>6</maxWeakCount>
      <stageThreshold>-7.3111438751220703e-01</stageThreshold>
      <weakClassifiers>
        <_>
          <internalNodes>
            0 -1 298 -939203584 -1073691648 -2147432320 -1073680832
            -446827520 -3080202 -487071040 -2621449</internalNodes>
          <leafValues>
            -4.8822847008705139e-01 9.5278471708297729e-01</leafValues></_>
        <_>
          <internalNodes>
            0 -1 26 -501037568 -353702738 -1912552384 -359989834
            -39790592 -33 -20001600 -5243137</internalNodes>
          <leafValues>
            -6.2399232387542725e-01 8.6490339040756226e-01</leafValues></_>
        <_>
          <internalNodes>
            0 -1 65 -2624001 530980917 -1649447429 788529293 2134884031
            1059025215 2071052187 725571519</internalNodes>
          <leafValues>
            -5.3003948926925659e-01 7.3843133449554443e-01</leafValues></_>
        <_>
          <internalNodes>
            0 -1 58 -3145745 -16388337 1979755174 -503153942 -11600043
            -15044265 -94240934 -150798494</internalNodes>
          <leafValues>
            -5.4573339223861694e-01 6.5024572610855103e-01</leafValues></_>
        <_>
          <internalNodes>
            0 -1 252 -539231297 1541393119 -1793517185 1073730555
            463145499 1537148155 184621871 1054558207</internalNodes>
          <leafValues>
            -5.9333181381225586e-01 5.2861958742141724e-01</leafValues></_>
        <_>
          <internalNodes>
            0 -1 335 -2105 177468330 -102243952 -341579390 -730732377
            -538317419 -993689344 -704643134</internalNodes>
          <leafValues>
            -5.0021076202392578e-01 6.0919797420501709e-01</leafValues></_></weakClassifiers></_>
    <!-- stage 1 -->
    <_>
      <maxWeakCount>10</maxWeakCount>
      <stageThreshold>-8.9601576328277588e-01</stageThreshold>
      <weakClassifiers>
        <_>
          <internalNodes>
            0 -1 8 -534721536 -366811410 -2145385472 -1207908240
            -333394752 -1310817 -555690880 -6029313</internalNodes>
          <leafValues>
            -2.1221995353698730e-01 9.3360412120819092e-01</leafValues></_>
        <_>
          <internalNodes>
            0 -1 267 -1002119168 1145368012 -800456928 -580911209
            -931072896 -2004026159 -278921814 -1048913</internalNodes>
          <leafValues>
            -6.1364245414733887e-01 7.8432250022888184e-01</leafValues></_>
        <_>
          <internalNodes>
            0 -1 105 -2049 858924303 -68043265 1068052567 -46141505
            1061058239 -10355713 993747711</internalNodes>
          <leafValues>
            -5.2736759185791016e-01 7.0300179719924927e-01</leafValues></_>
        <_>
          <internalNodes>
            0 -1 1 -1024529169 13533730 1243950607 -385218048 -891299093
            75943375 -422584389 -805311593</internalNodes>
          <leafValues>
            -4.2904871702194214e-01 6.6465389728546143e-01</leafValues></_>
        <_>
          <internalNodes>
            0 -1 307 -212074558 -1291781856 -252452288 -174009408
            -136840471 -694300757 -237262336 -202639373</internalNodes>
          <leafValues>
            -5.1314258575439453e-01 5.3443014621734619e-01</leafValues></_>
        <_>
          <internalNodes>
            0 -1 264 -8462401 1476380637 1480866461 2072860633 157813660
            432736991 806885563 868163323</internalNodes>
          <leafValues>
            -5.6157094240188599e-01 4.6967387199401855e-01</leafValues></_>
        <_>
          <internalNodes>
            0 -1 81 -67113169 -545804531 -1534541270 -536691922 -9900265
            -66042547 -140181526 -251461846</internalNodes>
          <leafValues>
            -5.7616943120956421e-01 4.2352259159088135e-01</leafValues></_>
        <_>
          <internalNodes>
            0 -1 144 -771794977 -789184817 1091045168 -167783945
            1339552727 -892859195 -209730815 1214208515</internalNodes>
          <leafValues>
            -4.4851797819137573e-01 5.1601785421371460e-01</leafValues></_>
        <_>
          <internalNodes>
            0 -1 177 -187112798 -167966969 4262835 1442784159
            -2129596745 -281607936 665300923 1215244811</internalNodes>
          <leafValues>
            -4.9432763457298279e-01 4.3164160847663879e-01</leafValues></_>
        <_>
          <internalNodes>
            0 -1 334 -33560593 -234095701 1991074052 -1450200182
            -536882737 -1835015213 -780025824 -772277573</internalNodes>
          <leafValues>
            -4.2509013414382935e-01 5.4191374778747559e-01</leafValues></_></weakClassifiers></_>
    <!-- stage 2 -->
    <_>
      <maxWeakCount>12</maxWeakCount>
      <stageThreshold>-1.1495162248611450e+00</stageThreshold>
      <weakClassifiers>
        <_>
          <internalNodes>
            0 -1 27 -1035960320 -83693966 1279282244 -605630514
            1409303552 -8390665 1413536968 -257</internalNodes>
          <leafValues>
            -1.3988739252090454e-01 9.2628747224807739e-01</leafValues></_>
        <_>
          <internalNodes>
            0 -1 238 -33566721 1574783231 -13795489 -538245163 167445899
            536549819 145752329 532617215</internalNodes>
          <leafValues>
            -3.2010528445243835e-01 8.0984908342361450e-01</leafValues></_>
        <_>
          <internalNodes>
            0 -1 328 -207162368 -544540006 -1662596864 -586162549
            -775457712 -1627657515 -746069104 -134744129</internalNodes>
          <leafValues>
            -5.8921104669570923e-01 5.4348236322402954e-01</leafValues></_>
        <_>
          <internalNodes>
            0 -1 65 -49285633 522847247 491064831 1023484703 1998044091
            992960715 -1354764805 1065313279</internalNodes>
          <leafValues>
            -5.7595664262771606e-01 4.6690565347671509e-01</leafValues></_>
        <_>
          <internalNodes>
            0 -1 248 -553934851 -9904747 -140059649 -212994 -140911619
            -6316037 -69141000 -2314500</internalNodes>
          <leafValues>
            -4.3808299303054810e-01 6.1759895086288452e-01</leafValues></_>
        <_>
          <internalNodes>
            0 -1 70 1920317399 -16843042 1416951031 -856817761
            -134222858 -4114 2002124339 -2097170</internalNodes>
          <leafValues>
            -4.3910953402519226e-01 5.6423354148864746e-01</leafValues></_>
        <_>
          <internalNodes>
            0 -1 53 -254873914 -246316846 -92217142 -264232446
            1281134477 -927906766 -892548978 -3161345</internalNodes>
          <leafValues>
            -5.3126788139343262e-01 4.7631475329399109e-01</leafValues></_>
        <_>
          <internalNodes>
            0 -1 2 -857305938 14450698 -2135995644 230360322 -1062079505
            -861409650 -167781713 -808494105</internalNodes>
          <leafValues>
            -5.2102321386337280e-01 4.2923581600189209e-01</leafValues></_>
        <_>
          <internalNodes>
            0 -1 49 -739267801 -1034946625 684434188 579792978
            -1381278969 554645023 -1292150010 -411567665</internalNodes>
          <leafValues>
            -4.8094120621681213e-01 3.7083020806312561e-01</leafValues></_>
        <_>
          <internalNodes>
            0 -1 275 -239077961 -100837889 -537559619 -1168200
            -2085490692 -131411 788569599 -1410857984</internalNodes>
          <leafValues>
            -3.4220519661903381e-01 5.4713159799575806e-01</leafValues></_>
        <_>
          <internalNodes>
            0 -1 272 1074842762 1364317014 185383900 -798731072 41657
            -924790080 -1563837508 -339608702</internalNodes>
          <leafValues>
            -4.6691370010375977e-01 3.8981986045837402e-01</leafValues></_>
        <_>
          <internalNodes>
            0 -1 337 -285218865 -469581950 -1473808496 -68618688
            -850403090 1499893120 -171847488 -538969113</internalNodes>
          <leafValues>
            -3.7169101834297180e-01 4.9371969699859619e-01</leafValues></_></weakClassifiers></_>
    <!-- stage 3 -->
    <_>
      <maxWeakCount>12</maxWeakCount>
      <stageThreshold>-1.0427309274673462e+00</stageThreshold>
      <weakClassifiers>
        <_>
          <internalNodes>
            0 -1 136 0 825241616 590357043 856762640 83895214 976757300
            17043631 1001982875</internalNodes>
          <leafValues>
            -1.4823757112026215e-01 9.2113912105560303e-01</leafValues></_>
        <_>
          <internalNodes>
            0 -1 312 2098192 383262199 -1082180227 -1073790977 738139647
            -4636676 -1077956641 -1073795361</internalNodes>
          <leafValues>
            -4.3671321868896484e-01 7.4521112442016602e-01</leafValues></_>
        <_>
          <internalNodes>
            0 -1 25 -352649506 2013330046 -898568996 -26710156
            -300491364 -1430323333 -344114 -16777217</internalNodes>
          <leafValues>
            -4.7084832191467285e-01 5.7805448770523071e-01</leafValues></_>
        <_>
          <internalNodes>
            0 -1 274 -8521227 -135212195 -4194305 -66305 -20578315
            -115495 -610422275 -3081040</internalNodes>
          <leafValues>
            -4.0600624680519104e-01 6.4797329902648926e-01</leafValues></_>
        <_>
          <internalNodes>
            0 -1 108 -543164964 -146423633 1158152584 1326187008
            -642011510 -67131221 1141582600 -1348883698</internalNodes>
          <leafValues>
            -5.1361966133117676e-01 4.9068006873130798e-01</leafValues></_>
        <_>
          <internalNodes>
            0 -1 160 664802325 1069383312 -1747248131 -1074793057
            523975156 -71665157 704195064 -1078036311</internalNodes>
          <leafValues>
            -5.4082751274108887e-01 4.1505193710327148e-01</leafValues></_>
        <_>
          <internalNodes>
            0 -1 335 -35655757 -150479601 -255271568 -5509846
            -1044136269 -341722941 -126779328 -203949070</internalNodes>
          <leafValues>
            -4.6705654263496399e-01 4.4461911916732788e-01</leafValues></_>
        <_>
          <internalNodes>
            0 -1 232 -18944009 -538968137 -266305 -19142869 -162664713
            -1200385 -87036502 -1431794688</internalNodes>
          <leafValues>
            -3.6145189404487610e-01 5.7182741165161133e-01</leafValues></_>
        <_>
          <internalNodes>
            0 -1 153 -252189022 1979033271 1085284881 1168048687
            -201019478 -82920566 812759995 -857799765</internalNodes>
          <leafValues>
            -4.5027527213096619e-01 4.3768721818923950e-01</leafValues></_>
        <_>
          <internalNodes>
            0 -1 73 -957395257 -289822737 -589782657 1244277162
            -386836731 -273038806 -3289216 -589957760</internalNodes>
          <leafValues>
            -4.8850753903388977e-01 3.9993241429328918e-01</leafValues></_>
        <_>
          <internalNodes>
            0 -1 18 1397617099 -654582793 1359014539 1349493959
            -1702102096 -5537350 -754910368 1598819018</internalNodes>
          <leafValues>
            -4.3970587849617004e-01 4.2575433850288391e-01</leafValues></_>
        <_>
          <internalNodes>
            0 -1 301 1573980 1383089081 523411389 358353819 673455352
            -1145413196 212339165 -1158542167</internalNodes>
          <leafValues>
            -5.3643751144409180e-01 3.4768190979957581e-01</leafValues></_></weakClassifiers></_>
    <!-- stage 4 -->
    <_>
      <maxWeakCount>15</maxWeakCount>
      <stageThreshold>-7.4887776374816895e-01</stageThreshold>
      <weakClassifiers>
        <_>
          <internalNodes>
            0 -1 34 -2132669440 -1963004209 -1464857088 -1025070482
            -590197756 -16846849 -554916660 -16781586</internalNodes>
          <leafValues>
            -8.1530779600143433e-02 9.1233199834823608e-01</leafValues></_>
        <_>
          <internalNodes>
            0 -1 296 -22348640 -13833080 -1196500992 -552940386
            -188877356 -106430505 -726143800 -136316929</internalNodes>
          <leafValues>
            -3.9051738381385803e-01 7.1876227855682373e-01</leafValues></_>
        <_>
          <internalNodes>
            0 -1 214 -553713667 -35979265 -4718593 -2687585 -371327491
            -16645 -221192 -30343248</internalNodes>
          <leafValues>
            -3.4286046028137207e-01 6.5574485063552856e-01</leafValues></_>
        <_>
          <internalNodes>
            0 -1 132 -153769285 -75519395 2134485435 -570479701 -393285
            -2310404 -1073763649 -1209430</internalNodes>
          <leafValues>
            -3.7916040420532227e-01 6.1384540796279907e-01</leafValues></_>
        <_>
          <internalNodes>
            0 -1 47 -33554625 -59245265 -151289190 12779306 -277502369
            -81285570 -25694513 -85983265</internalNodes>
          <leafValues>
            -3.7480399012565613e-01 6.3042366504669189e-01</leafValues></_>
        <_>
          <internalNodes>
            0 -1 250 -8532041 -17440781 -1312529 -352915668 -70135811
            -17060418 -1573084 -290930656</internalNodes>
          <leafValues>
            -4.4015797972679138e-01 4.8979836702346802e-01</leafValues></_>
        <_>
          <internalNodes>
            0 -1 116 1431697200 1429565716 -123282523 -176725072
            356836778 -44783104 -2116080961 -83893763</internalNodes>
          <leafValues>
            -5.6363886594772339e-01 3.6615577340126038e-01</leafValues></_>
        <_>
          <internalNodes>
            0 -1 0 -519051777 178693798 -1022381198 -393600896 -69469697
            1235204767 2113922027 -671134345</internalNodes>
          <leafValues>
            -4.6235728263854980e-01 4.2751765251159668e-01</leafValues></_>
        <_>
          <internalNodes>
            0 -1 343 -157810825 -1631867394 -603982810 -354616636
            -155713721 -601655537 -528576 -454101002</internalNodes>
          <leafValues>
            -4.3745386600494385e-01 4.2164170742034912e-01</leafValues></_>
        <_>
          <internalNodes>
            0 -1 66 -580781099 1516517141 938818559 143994717 -50267375
            1609582934 -44324293 1073550719</internalNodes>
          <leafValues>
            -4.6003744006156921e-01 4.1668263077735901e-01</leafValues></_>
        <_>
          <internalNodes>
            0 -1 80 -2101721 -72511953 -1026495750 -1843332630
            -133414400 -196067237 -630141700 -194969606</internalNodes>
          <leafValues>
            -4.9067020416259766e-01 3.5137602686882019e-01</leafValues></_>
        <_>
          <internalNodes>
            0 -1 241 1884812782 -11162918 -1367442050 -60690641 2159071
            -220692484 -1598750721 -76431425</internalNodes>
          <leafValues>
            -3.6766493320465088e-01 4.8923945426940918e-01</leafValues></_>
        <_>
          <internalNodes>
            0 -1 104 -1583157295 -1075436940 -1174425665 -5627468
            -1631604857 -1077968897 -1356369953 -1074063051</internalNodes>
          <leafValues>
            -3.2810932397842407e-01 5.2381408214569092e-01</leafValues></_>
        <_>
          <internalNodes>
            0 -1 98 -574042129 -90180769 -1625694561 -824990070
            1677266499 -694500443 -1342370746 1256934218</internalNodes>
          <leafValues>
            -4.3982127308845520e-01 3.6963865160942078e-01</leafValues></_>
        <_>
          <internalNodes>
            0 -1 178 2093984746 -169500187 909181097 1576923237
            1616969647 -593394167 589671359 412918534</internalNodes>
          <leafValues>
            -4.0215629339218140e-01 3.9794251322746277e-01</leafValues></_></weakClassifiers></_>
    <!-- stage 5 -->
    <_>
      <maxWeakCount>16</maxWeakCount>
      <stageThreshold>-8.2289743423461914e-01</stageThreshold>
      <weakClassifiers>
        <_>
          <internalNodes>
            0 -1 299 -1475436544 -536806388 -526192208 -458948720
            -167774704 -58785886 -151257168 -34078790</internalNodes>
          <leafValues>
            -7.1559630334377289e-02 9.0837913751602173e-01</leafValues></_>
        <_>
          <internalNodes>
            0 -1 11 -32323904 -675644510 1549418960 -39655282 -545204864
            -1076243059 -602909432 -33555461</internalNodes>
          <leafValues>
            -4.4129088521003723e-01 6.8674558401107788e-01</leafValues></_>
        <_>
          <internalNodes>
            0 -1 251 -572796929 -109457459 2039575485 -8054819 983699899
            465240568 698882235 2077951475</internalNodes>
          <leafValues>
            -4.9980598688125610e-01 4.7566962242126465e-01</leafValues></_>
        <_>
          <internalNodes>
            0 -1 231 -540540929 -67174433 -2490369 -67841 -80880131
            -1074417715 -1115139 -71762948</internalNodes>
          <leafValues>
            -3.7467083334922791e-01 6.1216711997985840e-01</leafValues></_>
        <_>
          <internalNodes>
            0 -1 4 -1028659473 -1892769078 -1935399136 -538050528
            -1090605057 -1342195713 -301995041 -43177</internalNodes>
          <leafValues>
            -4.2872366309165955e-01 4.9183711409568787e-01</leafValues></_>
        <_>
          <internalNodes>
            0 -1 43 -288364609 -1066674213 -66135082 540181186
            -139744625 -104883393 -247995071 -218635838</internalNodes>
          <leafValues>
            -4.4288375973701477e-01 4.3759566545486450e-01</leafValues></_>
        <_>
          <internalNodes>
            0 -1 143 741350705 1041895927 -1115744451 -8688759 241837553
            -38814273 -269869655 -47742</internalNodes>
          <leafValues>
            -5.1943105459213257e-01 3.5783347487449646e-01</leafValues></_>
        <_>
          <internalNodes>
            0 -1 110 2069363231 -1159266578 1157986413 -297336834
            -5253129 -268503621 -344869790 -277873425</internalNodes>
          <leafValues>
            -4.0682366490364075e-01 4.6979075670242310e-01</leafValues></_>
        <_>
          <internalNodes>
            0 -1 273 -345508960 -1559703288 -108805984 -72748128
            -1146885208 -1356140001 -2143057920 -340004949</internalNodes>
          <leafValues>
            -5.0430715084075928e-01 3.3581259846687317e-01</leafValues></_>
        <_>
          <internalNodes>
            0 -1 12 -609820681 -260038144 -945467681 69238786 -74992129
            -201969491 -124170785 1934321655</internalNodes>
          <leafValues>
            -4.5463377237319946e-01 3.6290809512138367e-01</leafValues></_>
        <_>
          <internalNodes>
            0 -1 82 -71309777 -748180433 893644475 570581258 -683454939
            -80247001 -89993234 -213717406</internalNodes>
          <leafValues>
            -4.8222959041595459e-01 3.5619994997978210e-01</leafValues></_>
        <_>
          <internalNodes>
            0 -1 151 -179978262 1363498357 2092288848 1437721335
            423669678 -572656223 1362426687 -387186753</internalNodes>
          <leafValues>
            -3.7549656629562378e-01 4.3881908059120178e-01</leafValues></_>
        <_>
          <internalNodes>
            0 -1 353 -873730141 -1060395129 -1868833751 -298868734
            -895253166 -506369323 1374371872 1089989347</internalNodes>
          <leafValues>
            -4.4944664835929871e-01 3.4331560134887695e-01</leafValues></_>
        <_>
          <internalNodes>
            0 -1 247 68683312 352860149 -989627529 1035368891 686341053
            -268600327 -1115193603 -1141368776</internalNodes>
          <leafValues>
            -4.3466326594352722e-01 3.6071294546127319e-01</leafValues></_>
        <_>
          <internalNodes>
            0 -1 194 1290644896 1357973285 -1607356667 1440154447
            1140891811 -1177549792 639470267 2080049674</internalNodes>
          <leafValues>
            -4.9970242381095886e-01 2.9204231500625610e-01</leafValues></_>
        <_>
          <internalNodes>
            0 -1 283 -1430752329 -1682106689 -1074397187 -572676673
            -1086870021 -1230514881 -1203020034 -1365245632</internalNodes>
          <leafValues>
            -3.5674500465393066e-01 4.1567873954772949e-01</leafValues></_></weakClassifiers></_>
    <!-- stage 6 -->
    <_>
      <maxWeakCount>16</maxWeakCount>
      <stageThreshold>-9.8174321651458740e-01</stageThreshold>
      <weakClassifiers>
        <_>
          <internalNodes>
            0 -1 295 -324344832 -1073691512 606098704 419488984
            -994065168 -273285645 -459023152 -79691789</internalNodes>
          <leafValues>
            4.0860213339328766e-02 9.0862590074539185e-01</leafValues></_>
        <_>
          <internalNodes>
            0 -1 131 1965160224 1431311668 -925707 1427207988 285605291
            -14829679 -607125573 -33554473</internalNodes>
          <leafValues>
            -2.3660930991172791e-01 7.0594739913940430e-01</leafValues></_>
        <_>
          <internalNodes>
            0 -1 39 -286265809 -286347401 1721164798 -1026889742
            -135266401 -825499905 -8388609 -5</internalNodes>
          <leafValues>
            -3.6079752445220947e-01 5.6191056966781616e-01</leafValues></_>
        <_>
          <internalNodes>
            0 -1 261 2121334773 -2842626 -113512001 -207425 -73547779
            -1196353 -4273155 -197164</internalNodes>
          <leafValues>
            -4.0325674414634705e-01 5.1856899261474609e-01</leafValues></_>
        <_>
          <internalNodes>
            0 -1 252 -136380513 1604249435 -1593733857 -576978969
            524815272 1610118122 940052248 1608505279</internalNodes>
          <leafValues>
            -5.3012746572494507e-01 3.6498978734016418e-01</leafValues></_>
        <_>
          <internalNodes>
            0 -1 55 -321 -3150545 -1968520962 -1610285938 -1040585108
            -128918761 -1851396872 -788481</internalNodes>
          <leafValues>
            -4.2263242602348328e-01 4.5808574557304382e-01</leafValues></_>
        <_>
          <internalNodes>
            0 -1 324 -134219493 -8941601 874912312 -8197 -85984768
            -1161908225 -1930515320 -1967392065</internalNodes>
          <leafValues>
            -3.8588601350784302e-01 4.8392930626869202e-01</leafValues></_>
        <_>
          <internalNodes>
            0 -1 20 -151129101 -285219333 931988285 -268470451
            -1162806413 -131075 2124692277 -7472244</internalNodes>
          <leafValues>
            -3.7776422500610352e-01 4.4515362381935120e-01</leafValues></_>
        <_>
          <internalNodes>
            0 -1 206 -119677473 -742564355 -5509137 1072493223
            -136323681 -1073249 -12587349 -1464147454</internalNodes>
          <leafValues>
            -2.9125025868415833e-01 5.4631662368774414e-01</leafValues></_>
        <_>
          <internalNodes>
            0 -1 347 -67115229 -2043689265 -929716729 1788608191
            2066708999 1147057707 -480779517 1207959551</internalNodes>
          <leafValues>
            -4.4627523422241211e-01 3.6147257685661316e-01</leafValues></_>
        <_>
          <internalNodes>
            0 -1 6 -924143958 -1022153995 -237556987 -1081670874
            -235300897 -125648300 -82610389 -9017456</internalNodes>
          <leafValues>
            -4.3711662292480469e-01 3.4365627169609070e-01</leafValues></_>
        <_>
          <internalNodes>
            0 -1 314 -2097233 -1469513808 294996309 -584583784
            -1722027077 -1884628687 904917076 -828582684</internalNodes>
          <leafValues>
            -3.7858018279075623e-01 3.9837992191314697e-01</leafValues></_>
        <_>
          <internalNodes>
            0 -1 126 -991501790 1966212287 1075354238 -518519102
            1347438660 -873593272 -624005809 -3209137</internalNodes>
          <leafValues>
            -4.5158144831657410e-01 3.4340429306030273e-01</leafValues></_>
        <_>
          <internalNodes>
            0 -1 278 -532158578 1349213958 -471120972 1591034704
            -2135362578 -1802496062 -71377924 -132320550</internalNodes>
          <leafValues>
            -4.1835302114486694e-01 3.5825094580650330e-01</leafValues></_>
        <_>
          <internalNodes>
            0 -1 50 -576730089 817733641 -1676236042 540042474
            1928265792 1304651331 -27450810 -232528966</internalNodes>
          <leafValues>
            -4.3395736813545227e-01 3.5108509659767151e-01</leafValues></_>
        <_>
          <internalNodes>
            0 -1 327 -1030755072 -1165699193 -1591472118 -1945388217
            1650471680 -89929599 -1163426262 -341328341</internalNodes>
          <leafValues>
            -4.9498143792152405e-01 2.9235401749610901e-01</leafValues></_></weakClassifiers></_>
    <!-- stage 7 -->
    <_>
      <maxWeakCount>19</maxWeakCount>
      <stageThreshold>-7.9562562704086304e-01</stageThreshold>
      <weakClassifiers>
        <_>
          <internalNodes>
            0 -1 32 8388608 -2097770825 146277632 -1359082838 -62204
            -16777217 -19517904 -5173</internalNodes>
          <leafValues>
            -4.9819495528936386e-02 9.0247774124145508e-01</leafValues></_>
        <_>
          <internalNodes>
            0 -1 300 2098196 848826335 733088765 1006124507 2121600985
            -89281389 -73975041 -1142199618</internalNodes>
          <leafValues>
            -2.3561413586139679e-01 6.8661671876907349e-01</leafValues></_>
        <_>
          <internalNodes>
            0 -1 170 -12600920 -536773 -172648310 -41014774 -656762178
            -67109409 -1141923672 -67460988</internalNodes>
          <leafValues>
            -4.3128985166549683e-01 4.7327154874801636e-01</leafValues></_>
        <_>
          <internalNodes>
            0 -1 166 -16777217 -4133 -781000705 -766353458 -118334500
            -83933939 -85131528 -100606984</internalNodes>
          <leafValues>
            -4.1748711466789246e-01 4.7348681092262268e-01</leafValues></_>
        <_>
          <internalNodes>
            0 -1 349 -671361277 -538968457 -2083795566 -78645441
            1912147968 -71844785 918192136 -298845281</internalNodes>
          <leafValues>
            -3.4373348951339722e-01 5.3344696760177612e-01</leafValues></_>
        <_>
          <internalNodes>
            0 -1 0 -3148305 -355800882 -319305094 -5316414 -33558017
            -1915759125 -419577857 -3085</internalNodes>
          <leafValues>
            -2.9735633730888367e-01 5.8297884464263916e-01</leafValues></_>
        <_>
          <internalNodes>
            0 -1 127 -680534780 -322563769 1608238893 -273696277
            1940519765 -46806187 -1147158773 -9438449</internalNodes>
          <leafValues>
            -4.5018669962882996e-01 3.5661077499389648e-01</leafValues></_>
        <_>
          <internalNodes>
            0 -1 44 -67111425 -51380321 -92363642 -521208094 -277483617
            -182588082 -269424746 -150994978</internalNodes>
          <leafValues>
            -3.4650450944900513e-01 4.4884940981864929e-01</leafValues></_>
        <_>
          <internalNodes>
            0 -1 130 -140773974 -1288490635 -50327749 993239224
            1603051400 1057844026 -1887064691 983171240</internalNodes>
          <leafValues>
            -5.4222959280014038e-01 2.8069040179252625e-01</leafValues></_>
        <_>
          <internalNodes>
            0 -1 121 136186903 -86342689 -1836659201 -553777944
            -1437908367 -285628693 -2033658379 -823512160</internalNodes>
          <leafValues>
            -4.6348884701728821e-01 3.3062884211540222e-01</leafValues></_>
        <_>
          <internalNodes>
            0 -1 28 -764009647 -326170145 600128511 -1359018071 -1316096
            -374654213 -1388151873 -808580372</internalNodes>
          <leafValues>
            -4.1520318388938904e-01 3.5329067707061768e-01</leafValues></_>
        <_>
          <internalNodes>
            0 -1 338 -20971793 -526913650 -479214896 -411853342
            -854856249 -858783793 -419761120 -170398729</internalNodes>
          <leafValues>
            -4.0816199779510498e-01 3.5955241322517395e-01</leafValues></_>
        <_>
          <internalNodes>
            0 -1 69 -591363408 -539578376 1063257045 -82837184
            2145017584 -134774818 -1078771974 -12356793</internalNodes>
          <leafValues>
            -3.4912714362144470e-01 4.1067826747894287e-01</leafValues></_>
        <_>
          <internalNodes>
            0 -1 248 880032085 -137612140 -536998595 -69272195 -71278664
            -7791887 -1074332740 -12047708</internalNodes>
          <leafValues>
            -4.1654497385025024e-01 3.5593754053115845e-01</leafValues></_>
        <_>
          <internalNodes>
            0 -1 85 -302011601 25134279 4366338 546219743 -69242621
            1630230899 1558443879 2004877311</internalNodes>
          <leafValues>
            -4.8567053675651550e-01 3.2272848486900330e-01</leafValues></_>
        <_>
          <internalNodes>
            0 -1 318 -151667017 -16395 90435519 -1074545155 1858903851
            -33558625 -1693536981 -2020636195</internalNodes>
          <leafValues>
            -3.1038478016853333e-01 4.7309273481369019e-01</leafValues></_>
        <_>
          <internalNodes>
            0 -1 112 1426453860 1968263236 953245696 -717926336
            1228990980 -81166163 -1708832582 -909525848</internalNodes>
          <leafValues>
            -5.2946233749389648e-01 2.6695883274078369e-01</leafValues></_>
        <_>
          <internalNodes>
            0 -1 226 269485425 1593575861 -537561603 -67813836
            -1399009795 -540262660 -1080510022 -1078328272</internalNodes>
          <leafValues>
            -3.4285789728164673e-01 3.8839200139045715e-01</leafValues></_>
        <_>
          <internalNodes>
            0 -1 48 -530177 -9437413 -402202612 1882195488 -1731180996
            -289910746 -17506614 -80478421</internalNodes>
          <leafValues>
            -3.5528817772865295e-01 3.9242291450500488e-01</leafValues></_></weakClassifiers></_>
    <!-- stage 8 -->
    <_>
      <maxWeakCount>19</maxWeakCount>
      <stageThreshold>-1.0334925651550293e+00</stageThreshold>
      <weakClassifiers>
        <_>
          <internalNodes>
            0 -1 266 41632 1145372012 1952629876 1564868399 60908
            8449743 14745518 -344854534</internalNodes>
          <leafValues>
            1.5061728656291962e-01 9.0690594911575317e-01</leafValues></_>
        <_>
          <internalNodes>
            0 -1 7 -353712512 -201655349 -290831532 -6883054 -9581484
            -17105958 -10296 -2117649</internalNodes>
          <leafValues>
            -3.0779939889907837e-01 6.4803504943847656e-01</leafValues></_>
        <_>
          <internalNodes>
            0 -1 309 -268448801 -51015608 1162724608 -573450100
            -37748737 -68689953 -706886331 -570434099</internalNodes>
          <leafValues>
            -3.4353753924369812e-01 5.2079707384109497e-01</leafValues></_>
        <_>
          <internalNodes>
            0 -1 117 -318789581 -2191651 536557983 -64611 -543834177
            -817066615 -1350653507 -4224358</internalNodes>
          <leafValues>
            -3.6118683218955994e-01 5.3904491662979126e-01</leafValues></_>
        <_>
          <internalNodes>
            0 -1 185 1182269205 67170577 23584695 -284168026 1937505143
            1060236053 -45351125 791673603</internalNodes>
          <leafValues>
            -4.4607996940612793e-01 3.7024989724159241e-01</leafValues></_>
        <_>
          <internalNodes>
            0 -1 4 -1007688705 -830053682 1162576082 -1343225248
            -814751489 -107250181 -1149048321 -545307273</internalNodes>
          <leafValues>
            -4.0381205081939697e-01 3.9283770322799683e-01</leafValues></_>
        <_>
          <internalNodes>
            0 -1 167 -1874571019 1347945301 -83176961 -1650573319
            -175773955 -74682931 -1181011 680537685</internalNodes>
          <leafValues>
            -5.3218352794647217e-01 2.6527997851371765e-01</leafValues></_>
        <_>
          <internalNodes>
            0 -1 101 -219159825 -546864521 -431837737 572687886
            -81207487 -96252371 -94323870 -150929662</internalNodes>
          <leafValues>
            -4.9933695793151855e-01 2.7596613764762878e-01</leafValues></_>
        <_>
          <internalNodes>
            0 -1 235 -2366290 1374922159 -120115857 -104128437 71565519
            1521828347 576389311 797377702</internalNodes>
          <leafValues>
            -5.2219313383102417e-01 2.7928328514099121e-01</leafValues></_>
        <_>
          <internalNodes>
            0 -1 336 -137366545 115331495 -439530976 -93596529
            -245393717 -1030110533 -727609344 -706219025</internalNodes>
          <leafValues>
            -3.9081552624702454e-01 3.5893163084983826e-01</leafValues></_>
        <_>
          <internalNodes>
            0 -1 231 1982861141 -3401349 345232351 -124193 -1144927751
            -1079389302 -116982820 -1096762120</internalNodes>
          <leafValues>
            -3.9697137475013733e-01 3.4346213936805725e-01</leafValues></_>
        <_>
          <internalNodes>
            0 -1 175 -189297758 -990785199 1960050736 1423130372
            -54270997 -1936883569 -1072562617 1424296919</internalNodes>
          <leafValues>
            -4.5879653096199036e-01 3.0538985133171082e-01</leafValues></_>
        <_>
          <internalNodes>
            0 -1 262 -114033159 -176705 -1090661891 -235934041
            -1204107283 -153489425 -1142210561 -353501184</internalNodes>
          <leafValues>
            -2.9149350523948669e-01 4.7288206219673157e-01</leafValues></_>
        <_>
          <internalNodes>
            0 -1 60 -1902139857 47170954 138744866 15570027 2035293007
            1114571298 1731061508 1367339383</internalNodes>
          <leafValues>
            -5.4317134618759155e-01 2.4505709111690521e-01</leafValues></_>
        <_>
          <internalNodes>
            0 -1 172 -1000287148 -128444048 -464299843 -547566847
            -1694174791 -103263787 -1958690819 -1364698789</internalNodes>
          <leafValues>
            -3.5266220569610596e-01 3.7916147708892822e-01</leafValues></_>
        <_>
          <internalNodes>
            0 -1 348 -538970878 2010114619 591426330 2074079695
            1497862916 2142057101 -2045274104 171178943</internalNodes>
          <leafValues>
            -4.1980862617492676e-01 3.1335374712944031e-01</leafValues></_>
        <_>
          <internalNodes>
            0 -1 229 67113268 -1111205603 1878130161 528243964
            1567647953 -21437257 -1622832147 -1681971280</internalNodes>
          <leafValues>
            -3.9978092908859253e-01 3.2209205627441406e-01</leafValues></_>
        <_>
          <internalNodes>
            0 -1 268 1078248910 1406524891 940892235 151724303 4235663
            -38810689 -1603860293 959081150</internalNodes>
          <leafValues>
            -4.4359761476516724e-01 2.8763756155967712e-01</leafValues></_>
        <_>
          <internalNodes>
            0 -1 75 -774376586 -1793945065 -913701838 823277640
            -590639992 -662175679 -862157696 -659367406</internalNodes>
          <leafValues>
            -4.8007798194885254e-01 2.7342224121093750e-01</leafValues></_></weakClassifiers></_>
    <!-- stage 9 -->
    <_>
      <maxWeakCount>21</maxWeakCount>
      <stageThreshold>-8.0283528566360474e-01</stageThreshold>
      <weakClassifiers>
        <_>
          <internalNodes>
            0 -1 331 -995965952 -636825664 1487176768 -103095104
            -841657260 -589864971 -504367660 -705432077</internalNodes>
          <leafValues>
            2.2315436601638794e-01 9.0906697511672974e-01</leafValues></_>
        <_>
          <internalNodes>
            0 -1 65 -143400993 1025778871 -1246538241 1057301709
            2055167931 960452847 964685247 994047743</internalNodes>
          <leafValues>
            -1.3902053236961365e-01 6.9819587469100952e-01</leafValues></_>
        <_>
          <internalNodes>
            0 -1 290 -975188065 -570442273 -909124220 -572656436
            -608708209 -845545553 1439679493 -594552628</internalNodes>
          <leafValues>
            -3.4786710143089294e-01 4.9890056252479553e-01</leafValues></_>
        <_>
          <internalNodes>
            0 -1 1 -1064310101 -2020687840 -282907457 -349238272
            -643827713 1770233547 -612896261 -536877189</internalNodes>
          <leafValues>
            -3.4840300679206848e-01 4.8730561137199402e-01</leafValues></_>
        <_>
          <internalNodes>
            0 -1 109 -320881667 -287978787 894581565 -842159203
            -664815309 -41618739 960829464 -2125922</internalNodes>
          <leafValues>
            -4.0144371986389160e-01 4.0667727589607239e-01</leafValues></_>
        <_>
          <internalNodes>
            0 -1 209 1901591551 826142685 1145365699 -1366391640
            -1352666113 1023516931 -44581989 992213523</internalNodes>
          <leafValues>
            -4.1049119830131531e-01 3.7192642688751221e-01</leafValues></_>
        <_>
          <internalNodes>
            0 -1 45 -135268497 1888986303 -89759205 536924706
            -1558990769 -30439035 -202401713 -50856230</internalNodes>
          <leafValues>
            -4.3219119310379028e-01 3.4500381350517273e-01</leafValues></_>
        <_>
          <internalNodes>
            0 -1 233 2003417905 -7203865 -599421457 -36929302 1110835647
            -4761434 258101412 359923712</internalNodes>
          <leafValues>
            -4.9974557757377625e-01 3.0267715454101562e-01</leafValues></_>
        <_>
          <internalNodes>
            0 -1 205 -16900649 -537253121 1921259519 1534729631
            -75539976 -1462039138 -98508804 2047893344</internalNodes>
          <leafValues>
            -4.8190221190452576e-01 2.6707065105438232e-01</leafValues></_>
        <_>
          <internalNodes>
            0 -1 217 1442299054 -73839862 -453724880 -1000402557
            1080096248 -83293557 611333371 -1077444082</internalNodes>
          <leafValues>
            -3.7659734487533569e-01 3.5704872012138367e-01</leafValues></_>
        <_>
          <internalNodes>
            0 -1 302 80744191 989679039 -1100710913 717380309
            -1562720116 -928232764 -1411252226 -1173701660</internalNodes>
          <leafValues>
            -3.9721477031707764e-01 3.5240629315376282e-01</leafValues></_>
        <_>
          <internalNodes>
            0 -1 358 -69212977 -900472378 1154796064 -269497049
            -110108337 1145225618 -798493885 1669330683</internalNodes>
          <leafValues>
            -3.9812612533569336e-01 3.5202375054359436e-01</leafValues></_>
        <_>
          <internalNodes>
            0 -1 94 1359181062 1944189716 401345102 -5397414 85047743
            -88499308 -577934850 -539115127</internalNodes>
          <leafValues>
            -3.9982584118843079e-01 3.2907417416572571e-01</leafValues></_>
        <_>
          <internalNodes>
            0 -1 86 -282132485 -1494712148 1046689653 -655344 740425663
            -1377312771 940768767 -67157643</internalNodes>
          <leafValues>
            -2.9721492528915405e-01 4.3876466155052185e-01</leafValues></_>
        <_>
          <internalNodes>
            0 -1 192 -556012146 1884368813 -20598857 1910811146
            1154225580 1478235345 668313534 2077560320</internalNodes>
          <leafValues>
            -3.8009259104728699e-01 3.1965127587318420e-01</leafValues></_>
        <_>
          <internalNodes>
            0 -1 57 -8388669 1031768611 578849954 65251 -677009571
            1851556195 -165818630 -160956417</internalNodes>
          <leafValues>
            -3.6557137966156006e-01 3.3359900116920471e-01</leafValues></_>
        <_>
          <internalNodes>
            0 -1 325 -8393848 -136593683 -1880150387 -1074028625
            -12996850 -554190915 -1651529170 -1245189681</internalNodes>
          <leafValues>
            -3.1128680706024170e-01 3.9985227584838867e-01</leafValues></_>
        <_>
          <internalNodes>
            0 -1 35 1137674458 -86773357 -661276001 282825303 -894481464
            -71327040 -673449199 1247670218</internalNodes>
          <leafValues>
            -3.6347419023513794e-01 3.3048138022422791e-01</leafValues></_>
        <_>
          <internalNodes>
            0 -1 111 -1541402224 -671587432 -1420271619 -4389760
            891334544 -1158096483 -2096474120 -5563099</internalNodes>
          <leafValues>
            -3.3686083555221558e-01 3.6062961816787720e-01</leafValues></_>
        <_>
          <internalNodes>
            0 -1 292 -1173358663 -1347622958 390715287 502166108
            -1215319297 -1891048551 1402667229 205833268</internalNodes>
          <leafValues>
            -4.8226830363273621e-01 2.5486057996749878e-01</leafValues></_>
        <_>
          <internalNodes>
            0 -1 334 -276569169 -317799995 -2088516442 -1985806490
            -2124036713 1292812431 -1801105280 -175112217</internalNodes>
          <leafValues>
            -3.8630828261375427e-01 3.1288996338844299e-01</leafValues></_></weakClassifiers></_>
    <!-- stage 10 -->
    <_>
      <maxWeakCount>22</maxWeakCount>
      <stageThreshold>-1.0176416635513306e+00</stageThreshold>
      <weakClassifiers>
        <_>
          <internalNodes>
            0 -1 114 0 -421075314 286589189 1155850207 -8146144
            -11534499 536952577 2144157452</internalNodes>
          <leafValues>
            -6.8965516984462738e-02 8.9837747812271118e-01</leafValues></_>
        <_>
          <internalNodes>
            0 -1 253 1087425774 1442601759 -26215233 2140120963 50668
            -68173961 552059631 -11010117</internalNodes>
          <leafValues>
            -1.5094435214996338e-01 6.7987120151519775e-01</leafValues></_>
        <_>
          <internalNodes>
            0 -1 180 857806385 1035645122 1060608881 -526893 1060731313
            -1096811079 452424191 -1050689</internalNodes>
          <leafValues>
            -4.0331375598907471e-01 4.3648946285247803e-01</leafValues></_>
        <_>
          <internalNodes>
            0 -1 81 -2100337 -12107217 -1037918038 -2145190134
            -381093013 -83314429 -7274504 -10289174</internalNodes>
          <leafValues>
            -4.9020457267761230e-01 3.4881475567817688e-01</leafValues></_>
        <_>
          <internalNodes>
            0 -1 149 -893467022 -1032435077 -758113701 -270825233
            1247019076 -828698949 -339260849 -805351857</internalNodes>
          <leafValues>
            -4.4596812129020691e-01 3.3841511607170105e-01</leafValues></_>
        <_>
          <internalNodes>
            0 -1 237 -73408523 -2438193 -1744592961 -6115446 -527372128
            -1329471745 12618937 1901547537</internalNodes>
          <leafValues>
            -4.5284339785575867e-01 3.2394072413444519e-01</leafValues></_>
        <_>
          <internalNodes>
            0 -1 23 -1024528657 -2117213553 -2144391421 -609761246
            -284441665 -810815233 -1076891665 -536873065</internalNodes>
          <leafValues>
            -3.0309584736824036e-01 4.9513047933578491e-01</leafValues></_>
        <_>
          <internalNodes>
            0 -1 129 -122276655 -1116598983 -1756905569 1031416877
            -1077562395 -1124662697 -1077953539 135296645</internalNodes>
          <leafValues>
            -4.4069468975067139e-01 2.9455867409706116e-01</leafValues></_>
        <_>
          <internalNodes>
            0 -1 304 -603979817 -611977398 -1409549616 -136265734
            -391132693 -636355232 1224050912 -33557797</internalNodes>
          <leafValues>
            -3.3150500059127808e-01 4.1488566994667053e-01</leafValues></_>
        <_>
          <internalNodes>
            0 -1 17 -692735023 -333477952 838022141 786172889 -175399147
            -81477431 -108347521 -276251763</internalNodes>
          <leafValues>
            -3.8564538955688477e-01 3.4902200102806091e-01</leafValues></_>
        <_>
          <internalNodes>
            0 -1 282 458751989 -6357576 -11029027 -44142088 729806253
            -271338553 1073730045 257215740</internalNodes>
          <leafValues>
            -4.1887253522872925e-01 3.1055933237075806e-01</leafValues></_>
        <_>
          <internalNodes>
            0 -1 346 -347094353 1811350461 -1967471613 1785500678
            2072725039 184744291 1734726407 1707857623</internalNodes>
          <leafValues>
            -4.1431474685668945e-01 2.9888176918029785e-01</leafValues></_>
        <_>
          <internalNodes>
            0 -1 225 337131889 -662956611 -8554499 -545319033
            -1077488196 -746052 -1114439684 -1147662952</internalNodes>
          <leafValues>
            -3.1295704841613770e-01 3.9484098553657532e-01</leafValues></_>
        <_>
          <internalNodes>
            0 -1 158 1408957418 1362174245 920399633 871840117 635137947
            -1318223348 856100399 559393819</internalNodes>
          <leafValues>
            -4.0471622347831726e-01 3.0734261870384216e-01</leafValues></_>
        <_>
          <internalNodes>
            0 -1 47 -207882445 1043429587 -2031726506 539006518
            -787521461 1967769863 -581973928 -196608446</internalNodes>
          <leafValues>
            -4.1622543334960938e-01 2.9659503698348999e-01</leafValues></_>
        <_>
          <internalNodes>
            0 -1 162 875568689 -10173520 -182775469 -34325312 570998689
            -538210362 713782692 -1611787216</internalNodes>
          <leafValues>
            -3.7250888347625732e-01 3.0843767523765564e-01</leafValues></_>
        <_>
          <internalNodes>
            0 -1 348 -67120369 -585105553 -1468613857 -248519137
            -469798656 -73468035 -90375028 -69471237</internalNodes>
          <leafValues>
            -2.3419910669326782e-01 5.1194638013839722e-01</leafValues></_>
        <_>
          <internalNodes>
            0 -1 152 -577251329 410635643 63507279 419996224 -1109596417
            -1094889572 -1011943288 2071708040</internalNodes>
          <leafValues>
            -2.4797700345516205e-01 4.5088520646095276e-01</leafValues></_>
        <_>
          <internalNodes>
            0 -1 5 -1601534302 193127530 -1534719230 -1316871678
            -204997709 -348129143 -1368767 -11832569</internalNodes>
          <leafValues>
            -4.8939967155456543e-01 2.4569921195507050e-01</leafValues></_>
        <_>
          <internalNodes>
            0 -1 223 810875869 -2013224523 875561465 210510909 -80894155
            -67150371 993074963 467348443</internalNodes>
          <leafValues>
            -3.9160078763961792e-01 2.9571136832237244e-01</leafValues></_>
        <_>
          <internalNodes>
            0 -1 61 1298616079 627426567 -25926134 1123020812 -152153569
            1946919487 2124151623 1736440431</internalNodes>
          <leafValues>
            -5.1617586612701416e-01 2.2202484309673309e-01</leafValues></_>
        <_>
          <internalNodes>
            0 -1 226 102785008 -552074755 -537624897 -1107410945
            -283330628 -1074774736 -554107685 -1078322021</internalNodes>
          <leafValues>
            -3.0197888612747192e-01 3.8565286993980408e-01</leafValues></_></weakClassifiers></_>
    <!-- stage 11 -->
    <_>
      <maxWeakCount>22</maxWeakCount>
      <stageThreshold>-7.6167601346969604e-01</stageThreshold>
      <weakClassifiers>
        <_>
          <internalNodes>
            0 -1 294 -391863296 -1600062782 -157221224 -626065477
            -255950848 -1379942414 -1027150198 -790549</internalNodes>
          <leafValues>
            2.6220762729644775e-01 9.0777605772018433e-01</leafValues></_>
        <_>
          <internalNodes>
            0 -1 9 -31269220 -147784322 -1155506936 -1759330848 -9765476
            -8388609 -391216504 -282067013</internalNodes>
          <leafValues>
            -2.6155191659927368e-01 6.4810788631439209e-01</leafValues></_>
        <_>
          <internalNodes>
            0 -1 0 -275779601 -288438654 -1045454714 -45317472
            -135791365 1272897786 -1681918309 -536872977</internalNodes>
          <leafValues>
            -2.7932280302047729e-01 5.2551537752151489e-01</leafValues></_>
        <_>
          <internalNodes>
            0 -1 275 -15534091 -134494821 -583020033 -33567317
            -1413366023 -68035331 -1141678081 -1093324</internalNodes>
          <leafValues>
            -2.9848045110702515e-01 5.3468537330627441e-01</leafValues></_>
        <_>
          <internalNodes>
            0 -1 93 2135945823 -136839458 -414322179 -288570405
            2002778043 -8388626 -74335401 -363465746</internalNodes>
          <leafValues>
            -3.2593694329261780e-01 4.7269922494888306e-01</leafValues></_>
        <_>
          <internalNodes>
            0 -1 142 1431697335 1427460437 -1209012078 -33691659
            1701291519 -34468295 -1395075138 -570569584</internalNodes>
          <leafValues>
            -3.3836039900779724e-01 4.0858519077301025e-01</leafValues></_>
        <_>
          <internalNodes>
            0 -1 231 1554407417 -461889 525062135 -34038817 -230404
            -89135655 -6767939 -2588676</internalNodes>
          <leafValues>
            -3.8290998339653015e-01 3.6420300602912903e-01</leafValues></_>
        <_>
          <internalNodes>
            0 -1 77 -150999513 -295713845 -166116730 -1594895217
            -82856377 -904703917 -341184700 -975701009</internalNodes>
          <leafValues>
            -3.8383442163467407e-01 3.3640211820602417e-01</leafValues></_>
        <_>
          <internalNodes>
            0 -1 208 -2626307 -7945106 -50057829 -574058840 1504778745
            160701951 758134966 1049823394</internalNodes>
          <leafValues>
            -4.7273528575897217e-01 2.6494207978248596e-01</leafValues></_>
        <_>
          <internalNodes>
            0 -1 133 -1330629328 -134731308 462339549 -35043179
            -1778369344 -1164123172 -1173308519 -1145372651</internalNodes>
          <leafValues>
            -3.7815308570861816e-01 3.3568972349166870e-01</leafValues></_>
        <_>
          <internalNodes>
            0 -1 342 -276075861 -1576282626 -1609093856 1187370541
            -1424792785 37464747 1730670851 1198521959</internalNodes>
          <leafValues>
            -4.3962064385414124e-01 2.7035045623779297e-01</leafValues></_>
        <_>
          <internalNodes>
            0 -1 159 1293782408 20058417 -573362221 435691306 552815511
            815285901 788565998 -1408702328</internalNodes>
          <leafValues>
            -4.4286990165710449e-01 2.8093713521957397e-01</leafValues></_>
        <_>
          <internalNodes>
            0 -1 326 -541086192 -15794689 -1543003001 -1346902049
            -368626914 -1178746662 588227354 -1489520449</internalNodes>
          <leafValues>
            -4.1275012493133545e-01 2.7896845340728760e-01</leafValues></_>
        <_>
          <internalNodes>
            0 -1 68 -152182795 -50590188 1626643453 1155683213
            -279015612 -6119801 -591873305 -1668424996</internalNodes>
          <leafValues>
            -3.6334401369094849e-01 3.2336765527725220e-01</leafValues></_>
        <_>
          <internalNodes>
            0 -1 228 1694483488 -453213048 -704793808 -35230004
            -473963531 -1447892543 1791172896 -570433537</internalNodes>
          <leafValues>
            -4.8738545179367065e-01 2.3471298813819885e-01</leafValues></_>
        <_>
          <internalNodes>
            0 -1 161 1380187010 1888225023 118425373 -33742217
            1036401327 -268145247 2108144491 1165230695</internalNodes>
          <leafValues>
            -3.9668831229209900e-01 2.9105180501937866e-01</leafValues></_>
        <_>
          <internalNodes>
            0 -1 320 210634768 1048613812 -1370096719 983564532
            -1098340676 -63018337 -1426490632 -1359082274</internalNodes>
          <leafValues>
            -4.4698277115821838e-01 2.5676980614662170e-01</leafValues></_>
        <_>
          <internalNodes>
            0 -1 36 -894442834 -842936658 -2144452032 -773199228
            1583826907 1239962729 -10737957 -673185841</internalNodes>
          <leafValues>
            -3.1387537717819214e-01 3.7235474586486816e-01</leafValues></_>
        <_>
          <internalNodes>
            0 -1 166 -763952897 -17021185 -933194641 1245334427
            -664777152 -14727860 -615989544 1511055196</internalNodes>
          <leafValues>
            -4.9167945981025696e-01 2.3889456689357758e-01</leafValues></_>
        <_>
          <internalNodes>
            0 -1 176 -192699222 -58701498 -582226034 1428824522
            1512076541 1210056920 1898588300 2075673736</internalNodes>
          <leafValues>
            -4.6386769413948059e-01 2.4182336032390594e-01</leafValues></_>
        <_>
          <internalNodes>
            0 -1 232 -705704457 -20484166 -10232785 -17858783
            -1214922753 -26219078 -1175131212 -356884224</internalNodes>
          <leafValues>
            -2.9480999708175659e-01 3.8558822870254517e-01</leafValues></_>
        <_>
          <internalNodes>
            0 -1 333 -102773277 -532630542 1234158276 -1148655104
            -437353729 -1398529044 1105985872 -980625438</internalNodes>
          <leafValues>
            -4.0266504883766174e-01 2.8056606650352478e-01</leafValues></_></weakClassifiers></_>
    <!-- stage 12 -->
    <_>
      <maxWeakCount>24</maxWeakCount>
      <stageThreshold>-7.3916518688201904e-01</stageThreshold>
      <weakClassifiers>
        <_>
          <internalNodes>
            0 -1 135 285213952 1426081024 -268452523 -136970364 89482549
            1163667332 1342000377 -33698620</internalNodes>
          <leafValues>
            2.3678861558437347e-01 9.0228533744812012e-01</leafValues></_>
        <_>
          <internalNodes>
            0 -1 16 -420140417 -827380997 185925850 227877384 -67392717
            -70722 -1074057345 -1168546</internalNodes>
          <leafValues>
            -1.2988288700580597e-01 6.6316378116607666e-01</leafValues></_>
        <_>
          <internalNodes>
            0 -1 24 -352940306 7635679 -1408106210 794231327 -85996613
            -1451169397 -244366373 -606081029</internalNodes>
          <leafValues>
            -3.8084924221038818e-01 4.0694049000740051e-01</leafValues></_>
        <_>
          <internalNodes>
            0 -1 291 -549978319 -1081149008 -74197131 -33751056 -5522443
            -1342314335 -2571 -537074512</internalNodes>
          <leafValues>
            -4.0117987990379333e-01 3.7612760066986084e-01</leafValues></_>
        <_>
          <internalNodes>
            0 -1 168 -648095777 1375630649 -67280897 287303533 -2113537
            -33581649 -1112 -1465195090</internalNodes>
          <leafValues>
            -2.8878360986709595e-01 4.9641808867454529e-01</leafValues></_>
        <_>
          <internalNodes>
            0 -1 236 1442839807 -36049593 -353842691 -285880561 71367679
            -273768801 7731967 -18350593</internalNodes>
          <leafValues>
            -3.1616035103797913e-01 4.5694395899772644e-01</leafValues></_>
        <_>
          <internalNodes>
            0 -1 351 -3153904 -540032486 -2054649839 -1383357273
            1526936833 -642199482 -1176294383 -12207305</internalNodes>
          <leafValues>
            -3.8376456499099731e-01 3.2086873054504395e-01</leafValues></_>
        <_>
          <internalNodes>
            0 -1 76 -134744329 -216010369 -498671498 2065746706
            1104167400 -118448766 -90910552 -16581894</internalNodes>
          <leafValues>
            -3.6872220039367676e-01 3.3821329474449158e-01</leafValues></_>
        <_>
          <internalNodes>
            0 -1 230 609488757 937362579 -419073601 464984275 -102596995
            -1141122309 -1613071555 800001979</internalNodes>
          <leafValues>
            -4.2491543292999268e-01 2.9767072200775146e-01</leafValues></_>
        <_>
          <internalNodes>
            0 -1 115 -165356144 -137055816 -1189350497 -179551920
            419562913 -342015776 497817533 -6093743</internalNodes>
          <leafValues>
            -3.5031807422637939e-01 3.4788557887077332e-01</leafValues></_>
        <_>
          <internalNodes>
            0 -1 21 1364587210 -221611282 1644237082 -285461797
            -71587340 -1180401527 -1308495296 -145390946</internalNodes>
          <leafValues>
            -5.0413066148757935e-01 2.4352243542671204e-01</leafValues></_>
        <_>
          <internalNodes>
            0 -1 263 -625747036 -128003118 488353165 -1190356146
            -794760032 -257391135 -932926808 22270181</internalNodes>
          <leafValues>
            -4.3772324919700623e-01 2.5314384698867798e-01</leafValues></_>
        <_>
          <internalNodes>
            0 -1 323 -5457 -335283249 -101365536 -540020123 -303356017
            249815553 1264468229 -990907698</internalNodes>
          <leafValues>
            -3.3994022011756897e-01 3.3154970407485962e-01</leafValues></_>
        <_>
          <internalNodes>
            0 -1 96 -1373239785 -53526029 -317564617 1324117269
            -1565900748 -353743982 -1057074268 -388470864</internalNodes>
          <leafValues>
            -4.2982438206672668e-01 2.5803461670875549e-01</leafValues></_>
        <_>
          <internalNodes>
            0 -1 227 1312209 301205100 497121789 -39901753 -1160201320
            -67543624 -1472681221 -1145370439</internalNodes>
          <leafValues>
            -2.3273374140262604e-01 4.9805599451065063e-01</leafValues></_>
        <_>
          <internalNodes>
            0 -1 174 1075178154 1156648277 -1328213232 1424425062
            1342498955 1050219178 -1473906173 13463227</internalNodes>
          <leafValues>
            -4.5304927229881287e-01 2.5952523946762085e-01</leafValues></_>
        <_>
          <internalNodes>
            0 -1 171 1714320721 1688911975 889127031 -309263924
            969874183 -40052198 957878580 -1348524117</internalNodes>
          <leafValues>
            -4.2270007729530334e-01 2.5835114717483521e-01</leafValues></_>
        <_>
          <internalNodes>
            0 -1 200 -800078648 1951697516 1733613190 -1885504836
            -192037452 1961999383 1905848303 1038051843</internalNodes>
          <leafValues>
            -3.7194293737411499e-01 2.9438591003417969e-01</leafValues></_>
        <_>
          <internalNodes>
            0 -1 59 -1411412053 5185675 272177411 553577553 -1926279158
            1796157701 656895809 1970274159</internalNodes>
          <leafValues>
            -4.5883288979530334e-01 2.3626223206520081e-01</leafValues></_>
        <_>
          <internalNodes>
            0 -1 258 1086863604 -118196995 -1358056961 -3398019
            -288613908 -1821735 -1276331559 -1163388744</internalNodes>
          <leafValues>
            -3.2995843887329102e-01 3.4044197201728821e-01</leafValues></_>
        <_>
          <internalNodes>
            0 -1 215 1149406595 -120817571 -180625049 -1764440541
            -530654691 -71591551 -15402972 -1464328192</internalNodes>
          <leafValues>
            -4.1850474476814270e-01 2.5923109054565430e-01</leafValues></_>
        <_>
          <internalNodes>
            0 -1 157 1433659050 1974490356 623193456 939077689
            1617480382 -1429265976 451259951 -1680998389</internalNodes>
          <leafValues>
            -3.5157591104507446e-01 3.0443555116653442e-01</leafValues></_>
        <_>
          <internalNodes>
            0 -1 191 -178409800 -110262354 -740443719 -713822786
            1286264253 1269386695 1065956520 1837411244</internalNodes>
          <leafValues>
            -3.5582640767097473e-01 3.1134670972824097e-01</leafValues></_>
        <_>
          <internalNodes>
            0 -1 79 -203462989 2000626706 1312949400 141062 -267356060
            -322567924 -566207384 -264179904</internalNodes>
          <leafValues>
            -5.3059262037277222e-01 2.0914031565189362e-01</leafValues></_></weakClassifiers></_>
    <!-- stage 13 -->
    <_>
      <maxWeakCount>25</maxWeakCount>
      <stageThreshold>-9.0553361177444458e-01</stageThreshold>
      <weakClassifiers>
        <_>
          <internalNodes>
            0 -1 254 130 434111897 961745979 323031953 81002746
            183440878 394136559 1068433545</internalNodes>
          <leafValues>
            3.1236720085144043e-01 9.0400242805480957e-01</leafValues></_>
        <_>
          <internalNodes>
            0 -1 88 1901409028 1964254976 2076104447 1966840930
            1157977973 1998044993 133160191 -38811937</internalNodes>
          <leafValues>
            -2.5481745600700378e-01 6.2276864051818848e-01</leafValues></_>
        <_>
          <internalNodes>
            0 -1 348 -136314929 -524321 -51396177 -33 -151129856
            -247521781 -84170744 -84934677</internalNodes>
          <leafValues>
            -2.2159576416015625e-01 5.8550077676773071e-01</leafValues></_>
        <_>
          <internalNodes>
            0 -1 1 -890255121 1282337450 -1375655966 -819296222 -1051489
            -1923416631 -605552641 -34604233</internalNodes>
          <leafValues>
            -3.2510876655578613e-01 4.2522886395454407e-01</leafValues></_>
        <_>
          <internalNodes>
            0 -1 214 -1662222883 -167886881 498163197 -10559009
            -756073732 -271607061 -25249283 -6783504</internalNodes>
          <leafValues>
            -3.7165188789367676e-01 3.6822739243507385e-01</leafValues></_>
        <_>
          <internalNodes>
            0 -1 221 -715128909 2097472782 -1130645965 -301937080
            -18953477 -14732756 -522480480 -13652958</internalNodes>
          <leafValues>
            -4.1915062069892883e-01 2.9355031251907349e-01</leafValues></_>
        <_>
          <internalNodes>
            0 -1 64 -2100737 1924141104 -955657513 889197106 -226250869
            -135381309 -812971122 1447031807</internalNodes>
          <leafValues>
            -3.8394206762313843e-01 3.2902106642723083e-01</leafValues></_>
        <_>
          <internalNodes>
            0 -1 51 -16777537 -9976169 -1400708182 -1610547706
            -594292148 -211172603 -588913016 -144441602</internalNodes>
          <leafValues>
            -4.0965306758880615e-01 3.0804637074470520e-01</leafValues></_>
        <_>
          <internalNodes>
            0 -1 319 -1066341732 -620872495 -1174193185 -571698691
            -124063764 -328067 -118948162 -1433753409</internalNodes>
          <leafValues>
            -2.6281866431236267e-01 4.3869474530220032e-01</leafValues></_>
        <_>
          <internalNodes>
            0 -1 113 575975441 -832772393 1507137533 -280171044
            -778715372 -4141904 -1424750292 -1383547720</internalNodes>
          <leafValues>
            -4.0248280763626099e-01 2.9046788811683655e-01</leafValues></_>
        <_>
          <internalNodes>
            0 -1 280 -1020528255 167880704 -1287662640 -750660191
            -580386887 -1651791096 -234884694 -273678933</internalNodes>
          <leafValues>
            -2.7034029364585876e-01 4.1269740462303162e-01</leafValues></_>
        <_>
          <internalNodes>
            0 -1 84 -136322769 -1354036313 -666122110 573193994
            -70256825 1864347183 -712246450 -148653754</internalNodes>
          <leafValues>
            -4.5735523104667664e-01 2.3577637970447540e-01</leafValues></_>
        <_>
          <internalNodes>
            0 -1 128 -1164403055 -117702408 -716577283 -40103780
            -1819694383 -1075105651 793554847 502273301</internalNodes>
          <leafValues>
            -4.3899303674697876e-01 2.5083482265472412e-01</leafValues></_>
        <_>
          <internalNodes>
            0 -1 355 -279977041 -1545145521 -1453718396 1854917222
            1749505431 151855105 1083262276 1439168327</internalNodes>
          <leafValues>
            -4.2387899756431580e-01 2.5009137392044067e-01</leafValues></_>
        <_>
          <internalNodes>
            0 -1 244 570433268 -1726740395 2133955455 -1075956235
            -1077112844 -1614867572 998783740 1066140748</internalNodes>
          <leafValues>
            -4.6949431300163269e-01 2.2813080251216888e-01</leafValues></_>
        <_>
          <internalNodes>
            0 -1 15 -755682443 -419689593 551879487 -1634924779
            -626066635 -341237044 -324952542 -1999042556</internalNodes>
          <leafValues>
            -3.8193649053573608e-01 2.8352105617523193e-01</leafValues></_>
        <_>
          <internalNodes>
            0 -1 97 109192311 -289517594 1425959677 -118725122 498683713
            -830565499 -510889743 -992164108</internalNodes>
          <leafValues>
            -4.3822553753852844e-01 2.4130842089653015e-01</leafValues></_>
        <_>
          <internalNodes>
            0 -1 277 -534733268 -755726260 -1711760931 -538131811
            305194420 -1259688791 148247889 -1962983356</internalNodes>
          <leafValues>
            -3.9570552110671997e-01 2.7074158191680908e-01</leafValues></_>
        <_>
          <internalNodes>
            0 -1 165 -703270478 -93010909 118049599 -541375829
            -263023984 1484462186 -1348428933 1390611059</internalNodes>
          <leafValues>
            -3.2243794202804565e-01 3.2634487748146057e-01</leafValues></_>
        <_>
          <internalNodes>
            0 -1 199 -102830130 -992868609 -572545800 -2795530
            -1915520061 -1808745103 -1109615633 1039865534</internalNodes>
          <leafValues>
            -3.0374634265899658e-01 3.4459090232849121e-01</leafValues></_>
        <_>
          <internalNodes>
            0 -1 218 1432348138 1033212682 1859067346 1976518955 5285365
            -1162311296 819854271 805270410</internalNodes>
          <leafValues>
            -3.2488101720809937e-01 3.2247462868690491e-01</leafValues></_>
        <_>
          <internalNodes>
            0 -1 56 -414187729 -1415619771 1149727748 1090122290
            -20283627 1813084485 -208437424 1947726715</internalNodes>
          <leafValues>
            -4.5261380076408386e-01 2.3534530401229858e-01</leafValues></_>
        <_>
          <internalNodes>
            0 -1 269 1080084426 387408677 -31252356 894730241
            -1606128726 -103757430 -1714297638 -76101011</internalNodes>
          <leafValues>
            -4.3804770708084106e-01 2.3511537909507751e-01</leafValues></_>
        <_>
          <internalNodes>
            0 -1 164 -875368569 -562919618 1246358997 -158421614
            237476595 -1433746843 612700256 -622926496</internalNodes>
          <leafValues>
            -3.3235517144203186e-01 3.1961286067962646e-01</leafValues></_>
        <_>
          <internalNodes>
            0 -1 134 -38611660 -3663044 -629016811 -575139547 529316592
            -1075958908 -437304663 -1785200591</internalNodes>
          <leafValues>
            -3.2888469099998474e-01 3.2731628417968750e-01</leafValues></_></weakClassifiers></_>
    <!-- stage 14 -->
    <_>
      <maxWeakCount>27</maxWeakCount>
      <stageThreshold>-7.5005024671554565e-01</stageThreshold>
      <weakClassifiers>
        <_>
          <internalNodes>
            0 -1 38 -530387452 2161666 682675460 24576 -186660976
            -2072494740 -491848248 -253698368</internalNodes>
          <leafValues>
            3.5714286565780640e-01 9.0369391441345215e-01</leafValues></_>
        <_>
          <internalNodes>
            0 -1 316 -1095623595 -1073871753 -1610647875 530455289
            -1141195892 -29479553 -1162175846 171445485</internalNodes>
          <leafValues>
            -4.6379659324884415e-02 6.7232996225357056e-01</leafValues></_>
        <_>
          <internalNodes>
            0 -1 138 -389165521 -136378385 365372327 -577246 -1190555201
            -475423744 -1978627334 -69238390</internalNodes>
          <leafValues>
            -2.7119734883308411e-01 4.9742373824119568e-01</leafValues></_>
        <_>
          <internalNodes>
            0 -1 249 1465121617 2115820278 -238094115 -10562824
            -29755212 -40176647 -3426828 -1148409672</internalNodes>
          <leafValues>
            -3.6674085259437561e-01 3.6305746436119080e-01</leafValues></_>
        <_>
          <internalNodes>
            0 -1 125 1931342814 -293744267 291107263 -287572513
            1917975381 1914042448 -75507437 1330376479</internalNodes>
          <leafValues>
            -4.8509865999221802e-01 2.8416627645492554e-01</leafValues></_>
        <_>
          <internalNodes>
            0 -1 349 -716190717 -70796193 1443046665 -252844545
            1864304128 -116656887 -968849270 -891290641</internalNodes>
          <leafValues>
            -3.1010565161705017e-01 4.1216343641281128e-01</leafValues></_>
        <_>
          <internalNodes>
            0 -1 332 -839918464 -611925332 -1068959532 -279932
            -589962768 -1970622048 -2001866552 -678429877</internalNodes>
          <leafValues>
            -5.4499810934066772e-01 1.8579404056072235e-01</leafValues></_>
        <_>
          <internalNodes>
            0 -1 107 -34079301 991065183 -571169607 1001391928
            -561916503 956327417 -594563190 993138169</internalNodes>
          <leafValues>
            -4.6891522407531738e-01 2.3687684535980225e-01</leafValues></_>
        <_>
          <internalNodes>
            0 -1 50 -2102633 -1301290971 -901065206 2283146 -907031764
            2030570778 -807672182 -59244817</internalNodes>
          <leafValues>
            -3.8783025741577148e-01 3.0363094806671143e-01</leafValues></_>
        <_>
          <internalNodes>
            0 -1 22 -913324566 53382282 8544390 -739344254 -2016217601
            76239036 1231764987 -672705417</internalNodes>
          <leafValues>
            -3.5024192929267883e-01 3.0216059088706970e-01</leafValues></_>
        <_>
          <internalNodes>
            0 -1 86 -645660685 -55663904 295886293 -1645852032
            -142475873 -1343299589 -13001217 -618201003</internalNodes>
          <leafValues>
            -2.5263342261314392e-01 4.1742846369743347e-01</leafValues></_>
        <_>
          <internalNodes>
            0 -1 239 1483199630 -678784448 -990920249 -325877535
            340851710 -1132494414 24373951 -148383049</internalNodes>
          <leafValues>
            -3.2931286096572876e-01 3.1951731443405151e-01</leafValues></_>
        <_>
          <internalNodes>
            0 -1 360 -270557173 1185933259 -2012785117 -1068505109
            -801410529 925540 1347072883 1132459775</internalNodes>
          <leafValues>
            -3.9337250590324402e-01 2.6203742623329163e-01</leafValues></_>
        <_>
          <internalNodes>
            0 -1 74 -397457297 -24188727 -830189954 -555999076 587144004
            -810646557 -235179530 -83902722</internalNodes>
          <leafValues>
            -3.6070629954338074e-01 2.8891941905021667e-01</leafValues></_>
        <_>
          <internalNodes>
            0 -1 89 -2109570320 -1715468204 168041969 -16773168
            -1019576144 -1144578314 -1081192037 -1145367969</internalNodes>
          <leafValues>
            -2.7771082520484924e-01 3.8010203838348389e-01</leafValues></_>
        <_>
          <internalNodes>
            0 -1 188 -899732737 2078230239 1644616415 1077029435
            -340705266 -112523747 -74564294 403734384</internalNodes>
          <leafValues>
            -5.2697092294692993e-01 2.1183876693248749e-01</leafValues></_>
        <_>
          <internalNodes>
            0 -1 14 -56772399 1012146417 1770011123 135340248 -641036253
            -578783000 -1663268805 -541051541</internalNodes>
          <leafValues>
            -3.6712443828582764e-01 2.7537524700164795e-01</leafValues></_>
        <_>
          <internalNodes>
            0 -1 288 -892190469 2050556755 -394617638 36330671
            -260128298 -29473774 -117908738 -1171085697</internalNodes>
          <leafValues>
            -2.8287687897682190e-01 3.5689690709114075e-01</leafValues></_>
        <_>
          <internalNodes>
            0 -1 102 -336124369 30893455 -2143076134 38764875 -269522333
            1981418098 1348040790 1802496835</internalNodes>
          <leafValues>
            -4.2335423827171326e-01 2.4588780105113983e-01</leafValues></_>
        <_>
          <internalNodes>
            0 -1 211 411082196 -539748363 -101941897 -604174505
            -1417353527 -629650240 -1614379779 -1146479312</internalNodes>
          <leafValues>
            -2.8173795342445374e-01 3.6089062690734863e-01</leafValues></_>
        <_>
          <internalNodes>
            0 -1 198 -262980686 -52573229 337121904 -822141497
            -1233696233 -833451996 -112870797 204807987</internalNodes>
          <leafValues>
            -3.9889165759086609e-01 2.4840916693210602e-01</leafValues></_>
        <_>
          <internalNodes>
            0 -1 324 -6300912 -1821116649 -2136331240 856871823
            1978480896 -1187634671 -895243128 145424047</internalNodes>
          <leafValues>
            -4.0157759189605713e-01 2.5145903229713440e-01</leafValues></_>
        <_>
          <internalNodes>
            0 -1 197 -179343709 -181390590 1569218541 -678844346
            559681278 1897931328 1216531708 1586053288</internalNodes>
          <leafValues>
            -3.1018579006195068e-01 3.3588975667953491e-01</leafValues></_>
        <_>
          <internalNodes>
            0 -1 356 -338694329 1084737503 1854505650 -489686391
            -162042433 -810436073 1421599298 1139274463</internalNodes>
          <leafValues>
            -3.6998590826988220e-01 2.6917609572410583e-01</leafValues></_>
        <_>
          <internalNodes>
            0 -1 245 275808593 942676533 1513223635 -541217418
            -398615627 -1684227692 535474174 -1366753091</internalNodes>
          <leafValues>
            -2.4096596240997314e-01 4.2255103588104248e-01</leafValues></_>
        <_>
          <internalNodes>
            0 -1 255 1914031087 836282878 414695146 -181458056
            1659373756 1023233149 1258216696 -756696</internalNodes>
          <leafValues>
            -2.5298684835433960e-01 3.7840679287910461e-01</leafValues></_>
        <_>
          <internalNodes>
            0 -1 224 -14682667 2116877220 -1359076112 -1349654140
            959703473 -1103988931 1933554347 -1358438397</internalNodes>
          <leafValues>
            -2.7183711528778076e-01 3.6199754476547241e-01</leafValues></_></weakClassifiers></_>
    <!-- stage 15 -->
    <_>
      <maxWeakCount>28</maxWeakCount>
      <stageThreshold>-8.0027276277542114e-01</stageThreshold>
      <weakClassifiers>
        <_>
          <internalNodes>
            0 -1 264 498633886 498667517 430980927 968608893 184027272
            502861535 134221208 457905287</internalNodes>
          <leafValues>
            3.6625194549560547e-01 9.0380382537841797e-01</leafValues></_>
        <_>
          <internalNodes>
            0 -1 140 935278479 51984145 -1887453701 1040170197 933206239
            251346520 -2018654721 -1951404385</internalNodes>
          <leafValues>
            3.3686641603708267e-02 6.9734656810760498e-01</leafValues></_>
        <_>
          <internalNodes>
            0 -1 0 -5246981 -892426006 -320351009 -3227486 -68168705
            -813731205 -206048261 -134221313</internalNodes>
          <leafValues>
            -2.1714840829372406e-01 5.5550080537796021e-01</leafValues></_>
        <_>
          <internalNodes>
            0 -1 58 -82843353 -284194289 -1006449526 570615306 -9045537
            -82839214 -277619474 -150798526</internalNodes>
          <leafValues>
            -5.1801532506942749e-01 2.5953581929206848e-01</leafValues></_>
        <_>
          <internalNodes>
            0 -1 122 -804529217 -101190217 -452912591 -147629537
            1221724469 -855892483 -1142990319 1291537501</internalNodes>
          <leafValues>
            -4.5128262042999268e-01 2.8043714165687561e-01</leafValues></_>
        <_>
          <internalNodes>
            0 -1 275 -42468869 -67674113 -4727297 -4364881 -1347043329
            -100690453 1039628975 -272693919</internalNodes>
          <leafValues>
            -2.6062378287315369e-01 4.8415568470954895e-01</leafValues></_>
        <_>
          <internalNodes>
            0 -1 315 -2887761 -306591793 1629483395 -2122275 -350499061
            -835994930 -1011621563 -839910145</internalNodes>
          <leafValues>
            -3.4009817242622375e-01 3.4292525053024292e-01</leafValues></_>
        <_>
          <internalNodes>
            0 -1 265 -544211776 -101248573 -1496110421 -8392174
            -1313898368 -103037701 -1198158200 853397215</internalNodes>
          <leafValues>
            -3.5974720120429993e-01 2.9944759607315063e-01</leafValues></_>
        <_>
          <internalNodes>
            0 -1 306 -2106453 1963315845 -258218496 -1968311421
            -489698390 -1466119711 -1057242688 -167772201</internalNodes>
          <leafValues>
            -3.9027434587478638e-01 2.6416140794754028e-01</leafValues></_>
        <_>
          <internalNodes>
            0 -1 303 -889321217 -791015715 -265118761 269126463
            -1398872068 -84602331 -70058275 -1170563876</internalNodes>
          <leafValues>
            -2.9182267189025879e-01 3.6711728572845459e-01</leafValues></_>
        <_>
          <internalNodes>
            0 -1 274 -687606283 974135293 -1109322371 -571172367
            -1088689156 -1081498701 1610609597 796452088</internalNodes>
          <leafValues>
            -3.5316291451454163e-01 2.9579660296440125e-01</leafValues></_>
        <_>
          <internalNodes>
            0 -1 13 -650391857 -200106024 -780738563 272890871
            -349511728 -71114792 2146942835 -67895335</internalNodes>
          <leafValues>
            -2.7888682484626770e-01 3.8616093993186951e-01</leafValues></_>
        <_>
          <internalNodes>
            0 -1 173 2094567310 823197885 -179038080 458304779
            -711932777 742655035 -136473458 969744522</internalNodes>
          <leafValues>
            -4.5144313573837280e-01 2.3356005549430847e-01</leafValues></_>
        <_>
          <internalNodes>
            0 -1 87 -1467731760 -557449146 1325535703 765339648
            154218467 -1146217853 -1191114309 993005845</internalNodes>
          <leafValues>
            -4.1313502192497253e-01 2.3569045960903168e-01</leafValues></_>
        <_>
          <internalNodes>
            0 -1 204 1414574544 1890998719 634800983 215749311
            1935743984 -120522616 2068061011 796604435</internalNodes>
          <leafValues>
            -4.1706034541130066e-01 2.3602095246315002e-01</leafValues></_>
        <_>
          <internalNodes>
            0 -1 33 -1037963389 1268951778 605372930 -235932978
            -836769373 75823002 -209782845 -278403077</internalNodes>
          <leafValues>
            -2.8918135166168213e-01 3.4838756918907166e-01</leafValues></_>
        <_>
          <internalNodes>
            0 -1 100 -4505 -1418130922 1015237048 50384704 2092236800
            1487999744 -1672828688 -94308492</internalNodes>
          <leafValues>
            -3.9446005225181580e-01 2.6191410422325134e-01</leafValues></_>
        <_>
          <internalNodes>
            0 -1 354 -603992925 -435321185 843776 210421386 -452469169
            1115902057 1116202592 1417145247</internalNodes>
          <leafValues>
            -4.6726503968238831e-01 2.0870368182659149e-01</leafValues></_>
        <_>
          <internalNodes>
            0 -1 183 -674200974 -162528753 -1699357237 -38206708
            -241908255 -527396631 323080298 424084527</internalNodes>
          <leafValues>
            -3.2373359799385071e-01 3.0792799592018127e-01</leafValues></_>
        <_>
          <internalNodes>
            0 -1 120 8389905 -120189258 -1600242379 1559767625 755913556
            -276785015 1333535408 -1130749763</internalNodes>
          <leafValues>
            -4.3960982561111450e-01 2.2341552376747131e-01</leafValues></_>
        <_>
          <internalNodes>
            0 -1 30 1391965060 -296877489 924130125 -294708849
            -1081094272 -1685372928 353210115 -116848632</internalNodes>
          <leafValues>
            -4.7110202908515930e-01 2.0652322471141815e-01</leafValues></_>
        <_>
          <internalNodes>
            0 -1 246 -799674288 270463220 -316977648 497711133
            -1878009663 -1673669656 -527819848 150591739</internalNodes>
          <leafValues>
            -3.3748957514762878e-01 2.9619118571281433e-01</leafValues></_>
        <_>
          <internalNodes>
            0 -1 41 -490484026 987662923 -99458504 -252533042
            -1014790700 -208510581 -206453056 -126753816</internalNodes>
          <leafValues>
            -4.4690290093421936e-01 2.1021899580955505e-01</leafValues></_>
        <_>
          <internalNodes>
            0 -1 207 -18895190 -722130547 -320931412 -1059774957
            1141945791 -1089820145 876979275 -212784881</internalNodes>
          <leafValues>
            -3.3904975652694702e-01 2.8342533111572266e-01</leafValues></_>
        <_>
          <internalNodes>
            0 -1 256 8029354 1349650981 307281965 1071722820 78382271
            -1132975464 1042811583 -1079244645</internalNodes>
          <leafValues>
            -4.1758489608764648e-01 2.3285682499408722e-01</leafValues></_>
        <_>
          <internalNodes>
            0 -1 281 -1939894601 -1809656608 -993964032 -573712214
            664498059 -909597796 -2073083583 -51382822</internalNodes>
          <leafValues>
            -3.2190972566604614e-01 3.0331683158874512e-01</leafValues></_>
        <_>
          <internalNodes>
            0 -1 330 1478021140 1490550940 -2133598753 280632447
            -96958264 -6567993 -99047734 -1440018949</internalNodes>
          <leafValues>
            -2.6987794041633606e-01 3.6098125576972961e-01</leafValues></_>
        <_>
          <internalNodes>
            0 -1 220 1413539176 1422131312 1426682636 -352830979
            -1720673932 272171985 925575029 1069492011</internalNodes>
          <leafValues>
            -4.1510319709777832e-01 2.3652777075767517e-01</leafValues></_></weakClassifiers></_>
    <!-- stage 16 -->
    <_>
      <maxWeakCount>29</maxWeakCount>
      <stageThreshold>-7.1919184923171997e-01</stageThreshold>
      <weakClassifiers>
        <_>
          <internalNodes>
            0 -1 29 581435952 -419502339 89530890 264111101 467480337
            2071491576 990132795 1061761928</internalNodes>
          <leafValues>
            2.5638180971145630e-01 8.9912980794906616e-01</leafValues></_>
        <_>
          <internalNodes>
            0 -1 216 -548880096 -69271569 -176788056 -364752978
            458667757 -73748 -1115994880 -353484800</internalNodes>
          <leafValues>
            -1.6184185445308685e-01 6.3790649175643921e-01</leafValues></_>
        <_>
          <internalNodes>
            0 -1 62 -808458261 -336672054 86452736 -68288512 -542118917
            -3237953 2138011647 -536919947</internalNodes>
          <leafValues>
            -2.8019261360168457e-01 4.4054773449897766e-01</leafValues></_>
        <_>
          <internalNodes>
            0 -1 311 -1103358507 -536995589 -1860832801 -1074908289
            -1695763729 -7771653 -1148011525 716969181</internalNodes>
          <leafValues>
            -4.0189781785011292e-01 3.2116520404815674e-01</leafValues></_>
        <_>
          <internalNodes>
            0 -1 274 -1085997067 -8461898 1371626489 -35669028 -70254607
            -1143368821 -74713603 -1073953352</internalNodes>
          <leafValues>
            -3.4198760986328125e-01 3.6614102125167847e-01</leafValues></_>
        <_>
          <internalNodes>
            0 -1 139 319771595 -547380485 1413817808 -1059077649
            -136684565 -1074132561 1910304563 1146479599</internalNodes>
          <leafValues>
            -3.8799655437469482e-01 3.1985837221145630e-01</leafValues></_>
        <_>
          <internalNodes>
            0 -1 305 -541729846 1999081601 -1637881472 -618278488
            -1034559573 -1153779797 -1061238640 -409993222</internalNodes>
          <leafValues>
            -4.5289695262908936e-01 2.3594902455806732e-01</leafValues></_>
        <_>
          <internalNodes>
            0 -1 141 825488266 825309041 -945039 2010460173 1772209146
            -1162237711 -862872901 -1144059169</internalNodes>
          <leafValues>
            -3.7221610546112061e-01 2.9959884285926819e-01</leafValues></_>
        <_>
          <internalNodes>
            0 -1 67 1598362485 -863107324 583080185 150806021 -284092
            -81035716 -395582953 529230297</internalNodes>
          <leafValues>
            -4.2131179571151733e-01 2.5743305683135986e-01</leafValues></_>
        <_>
          <internalNodes>
            0 -1 148 -87040769 -182776273 1342232031 1534227927
            412631256 -808370166 1484818616 -99553910</internalNodes>
          <leafValues>
            -3.6019554734230042e-01 3.1430095434188843e-01</leafValues></_>
        <_>
          <internalNodes>
            0 -1 71 -1039466766 1598031810 513810548 -41156606
            -1089067856 -427650986 -125627273 -16288953</internalNodes>
          <leafValues>
            -3.6341041326522827e-01 2.8570061922073364e-01</leafValues></_>
        <_>
          <internalNodes>
            0 -1 340 -338959061 -413198129 -1983153085 1858771179
            -999557365 1132004261 -308288697 2012216303</internalNodes>
          <leafValues>
            -4.1976815462112427e-01 2.3689004778862000e-01</leafValues></_>
        <_>
          <internalNodes>
            0 -1 240 1431660428 464614018 673579957 1972576553 7403420
            -1077255649 852181695 1063592943</internalNodes>
          <leafValues>
            -4.1340744495391846e-01 2.4274353682994843e-01</leafValues></_>
        <_>
          <internalNodes>
            0 -1 260 3159381 -78356643 1299831549 -36399893 -1175015748
            -69665794 803813343 -1631969960</internalNodes>
          <leafValues>
            -3.0212557315826416e-01 3.3039683103561401e-01</leafValues></_>
        <_>
          <internalNodes>
            0 -1 40 -420549014 -528554274 139125852 407405056 1402675832
            -2045918871 -519598118 -68681794</internalNodes>
          <leafValues>
            -4.1000914573669434e-01 2.4867245554924011e-01</leafValues></_>
        <_>
          <internalNodes>
            0 -1 92 -578105438 -754801840 -1900789260 -38461295
            908602753 -1001601598 1258763451 -884254941</internalNodes>
          <leafValues>
            -2.7359864115715027e-01 3.5800707340240479e-01</leafValues></_>
        <_>
          <internalNodes>
            0 -1 83 802917163 18870011 1309344093 539988331 -180465913
            1124284694 2073944832 1363666667</internalNodes>
          <leafValues>
            -4.1260701417922974e-01 2.3464952409267426e-01</leafValues></_>
        <_>
          <internalNodes>
            0 -1 257 -69445796 1886392420 1658171837 1737015709
            -608923227 -1669321264 -1618965720 800545151</internalNodes>
          <leafValues>
            -3.4277161955833435e-01 2.8361952304840088e-01</leafValues></_>
        <_>
          <internalNodes>
            0 -1 124 -566758401 -139989390 -1363774746 -72976172
            -1119572745 -1481555369 1077167302 -69766445</internalNodes>
          <leafValues>
            -2.6339295506477356e-01 3.7356451153755188e-01</leafValues></_>
        <_>
          <internalNodes>
            0 -1 285 -1797723204 416494066 -1895299533 1068477693
            -2133292376 811145452 1069558955 818925789</internalNodes>
          <leafValues>
            -3.8124346733093262e-01 2.6266038417816162e-01</leafValues></_>
        <_>
          <internalNodes>
            0 -1 184 2100784432 -16485363 -724120958 -433558358
            -888155977 -82451885 1156132880 -12242896</internalNodes>
          <leafValues>
            -4.8455730080604553e-01 1.9698329269886017e-01</leafValues></_>
        <_>
          <internalNodes>
            0 -1 182 -775702078 -1294226577 616606620 -1490465
            -1247544657 1885397965 2078260895 1864886366</internalNodes>
          <leafValues>
            -2.9460772871971130e-01 3.2816034555435181e-01</leafValues></_>
        <_>
          <internalNodes>
            0 -1 186 1484280788 349342427 1369593178 1135095380
            -627422672 -86504748 -1373095344 -8895647</internalNodes>
          <leafValues>
            -4.6426123380661011e-01 2.0593188703060150e-01</leafValues></_>
        <_>
          <internalNodes>
            0 -1 345 -538982513 -926037298 35774710 139384770 -846210417
            -1934959436 -751115961 1162866863</internalNodes>
          <leafValues>
            -3.4186294674873352e-01 2.7885454893112183e-01</leafValues></_>
        <_>
          <internalNodes>
            0 -1 317 -577507176 -53135111 -1939584359 399998199
            1920800008 -1147315496 10882216 -2132017925</internalNodes>
          <leafValues>
            -3.1076931953430176e-01 3.1657168269157410e-01</leafValues></_>
        <_>
          <internalNodes>
            0 -1 95 -399889135 -674344253 -238413409 -251464789
            -88170052 -1417019382 -173483137 -3482972</internalNodes>
          <leafValues>
            -3.4271538257598877e-01 2.7709630131721497e-01</leafValues></_>
        <_>
          <internalNodes>
            0 -1 150 1518328746 1161918323 883000352 1375028959
            1863289257 -3733336 731677445 898869948</internalNodes>
          <leafValues>
            -3.4438627958297729e-01 2.7739810943603516e-01</leafValues></_>
        <_>
          <internalNodes>
            0 -1 284 -1878999824 -18575128 -1635583083 -639855787
            -2144331019 -358786817 -1369907459 -1612099115</internalNodes>
          <leafValues>
            -3.0258780717849731e-01 3.1367334723472595e-01</leafValues></_>
        <_>
          <internalNodes>
            0 -1 78 -69998033 -1285570539 -267205472 34142658 -619723776
            1243160857 -766778684 1413939151</internalNodes>
          <leafValues>
            -4.4728717207908630e-01 2.1044978499412537e-01</leafValues></_></weakClassifiers></_>
    <!-- stage 17 -->
    <_>
      <maxWeakCount>28</maxWeakCount>
      <stageThreshold>-7.5706595182418823e-01</stageThreshold>
      <weakClassifiers>
        <_>
          <internalNodes>
            0 -1 294 -290529280 -1535051094 -1566249344 -2136965218
            -925904864 -1120944166 -411832376 -1048673</internalNodes>
          <leafValues>
            3.3093523979187012e-01 9.0143305063247681e-01</leafValues></_>
        <_>
          <internalNodes>
            0 -1 160 304091440 1032780226 524246389 -699073 1064858004
            -4227335 1072641193 -57608</internalNodes>
          <leafValues>
            -1.2796474993228912e-01 6.3810247182846069e-01</leafValues></_>
        <_>
          <internalNodes>
            0 -1 190 -560013345 -801129185 -1074520081 134413931 -540673
            -2642 -86 -1427445014</internalNodes>
          <leafValues>
            -2.8873538970947266e-01 4.5565047860145569e-01</leafValues></_>
        <_>
          <internalNodes>
            0 -1 242 1532882735 1597388703 331914999 2109020955 40828985
            2090560983 528554683 -41973</internalNodes>
          <leafValues>
            -3.7582951784133911e-01 3.2972699403762817e-01</leafValues></_>
        <_>
          <internalNodes>
            0 -1 0 -875632406 707699368 24847494 637968608 60484527
            243870191 1353439191 1437550579</internalNodes>
          <leafValues>
            -5.9848827123641968e-01 2.0398496091365814e-01</leafValues></_>
        <_>
          <internalNodes>
            0 -1 289 -157287533 67160064 -1545610320 -1658782832
            -74712071 -601693006 -20971525 -5242881</internalNodes>
          <leafValues>
            -2.8395277261734009e-01 4.2060014605522156e-01</leafValues></_>
        <_>
          <internalNodes>
            0 -1 119 -715293668 -92360002 -364858931 -389107462
            -79840365 -1145067219 -613051839 -9052097</internalNodes>
          <leafValues>
            -4.4344735145568848e-01 2.2278057038784027e-01</leafValues></_>
        <_>
          <internalNodes>
            0 -1 341 -170420775 -73725859 482105887 964671453 -56645048
            -1089522177 -1431655782 -1430585669</internalNodes>
          <leafValues>
            -2.4484823644161224e-01 4.1755163669586182e-01</leafValues></_>
        <_>
          <internalNodes>
            0 -1 46 -671128781 -1341185336 -1291790630 268482450
            -989642389 -82640829 -9597748 -663031842</internalNodes>
          <leafValues>
            -4.0372690558433533e-01 2.6010182499885559e-01</leafValues></_>
        <_>
          <internalNodes>
            0 -1 187 -28526692 2088637431 999328735 -2195233 1507592944
            -52841575 -892654687 -71495923</internalNodes>
          <leafValues>
            -3.4082087874412537e-01 2.8966033458709717e-01</leafValues></_>
        <_>
          <internalNodes>
            0 -1 106 -176687130 1567979300 -1170774032 1157981600
            1180011695 -4735569 1570754778 -846485782</internalNodes>
          <leafValues>
            -3.0489444732666016e-01 3.2278743386268616e-01</leafValues></_>
        <_>
          <internalNodes>
            0 -1 321 772148757 873480254 -1934303873 441882641
            -1354044425 -1172152119 -1217204232 -1162167708</internalNodes>
          <leafValues>
            -3.5815173387527466e-01 2.7793872356414795e-01</leafValues></_>
        <_>
          <internalNodes>
            0 -1 163 -1375557840 -542465676 -175112268 -539192600
            721533429 -1894863739 758584820 -539012716</internalNodes>
          <leafValues>
            -3.3568790555000305e-01 2.9063576459884644e-01</leafValues></_>
        <_>
          <internalNodes>
            0 -1 293 -1473243887 -221752107 -904941217 -194529
            -1573897047 -1441240777 711074970 179835985</internalNodes>
          <leafValues>
            -4.4399568438529968e-01 2.1174727380275726e-01</leafValues></_>
        <_>
          <internalNodes>
            0 -1 344 -273682645 1160481710 -326329728 -1564423030
            1286595079 1246359178 1471930432 1182265930</internalNodes>
          <leafValues>
            -5.1362043619155884e-01 1.7839649319648743e-01</leafValues></_>
        <_>
          <internalNodes>
            0 -1 350 -614481405 -205135301 -1369308541 -528492789
            1215537160 -9294075 -2043706738 -926420053</internalNodes>
          <leafValues>
            -2.4461635947227478e-01 4.0178924798965454e-01</leafValues></_>
        <_>
          <internalNodes>
            0 -1 259 -2063797008 1545637396 -1199512800 -1492429631
            -1873808719 -1128615495 775568795 797910267</internalNodes>
          <leafValues>
            -3.2749977707862854e-01 2.9027125239372253e-01</leafValues></_>
        <_>
          <internalNodes>
            0 -1 3 -889533802 430449098 -954064112 -1181570546
            -100149846 -2008383485 2064261133 -1069303729</internalNodes>
          <leafValues>
            -3.6503776907920837e-01 2.5863808393478394e-01</leafValues></_>
        <_>
          <internalNodes>
            0 -1 154 2126559957 -287512865 2009936349 -320894507
            -1620833513 -1182234098 994056215 -1349931764</internalNodes>
          <leafValues>
            -3.5421565175056458e-01 2.7472138404846191e-01</leafValues></_>
        <_>
          <internalNodes>
            0 -1 195 -716320593 -753857879 269409644 1405690056
            -603881991 805317664 1829274618 958469608</internalNodes>
          <leafValues>
            -3.2400962710380554e-01 2.9897829890251160e-01</leafValues></_>
        <_>
          <internalNodes>
            0 -1 339 -6297745 -287582001 1649658002 -476273216
            -1029742065 504859075 -205039792 1439166151</internalNodes>
          <leafValues>
            -4.9110624194145203e-01 1.9371476769447327e-01</leafValues></_>
        <_>
          <internalNodes>
            0 -1 90 -652193200 -586151343 -378460999 2110260304
            2044791205 -110895963 956268474 2144477459</internalNodes>
          <leafValues>
            -4.2068520188331604e-01 2.3386767506599426e-01</leafValues></_>
        <_>
          <internalNodes>
            0 -1 201 -706881596 -990078351 -648412200 -1116262449
            -267043421 -2007944303 1028632375 1034495759</internalNodes>
          <leafValues>
            -3.3705419301986694e-01 2.8032177686691284e-01</leafValues></_>
        <_>
          <internalNodes>
            0 -1 103 -109058289 2141187150 1074792975 33671566 -54934001
            -1702936057 -45828116 -213648830</internalNodes>
          <leafValues>
            -3.3171412348747253e-01 2.8420314192771912e-01</leafValues></_>
